<?xml version="1.0"?>
<opencv_storage>
<opencv_ml_ann_mlp>
  <format>3</format>
  <layer_sizes>
    14 72 4</layer_sizes>
  <activation_function>SIGMOID_SYM</activation_function>
  <f_param1>5.9999999999999998e-01</f_param1>
  <f_param2>1.</f_param2>
  <min_val>-9.4999999999999996e-01</min_val>
  <max_val>9.4999999999999996e-01</max_val>
  <min_val1>-9.7999999999999998e-01</min_val1>
  <max_val1>9.7999999999999998e-01</max_val1>
  <training_params>
    <train_method>BACKPROP</train_method>
    <dw_scale>1.0000000000000001e-01</dw_scale>
    <moment_scale>1.0000000000000001e-01</moment_scale>
    <term_criteria>
      <epsilon>1.</epsilon>
      <iterations>100</iterations></term_criteria></training_params>
  <input_scale>
    1. 0. 1. 0. 1. 0. 1. 0. 1. 0. 1. 0. 1. 0. 1. 0. 1. 0. 1. 0. 1. 0. 1.
    0. 1. 0. 1. 0.</input_scale>
  <output_scale>
    1. 0. 1. 0. 1. 0. 1. 0.</output_scale>
  <inv_output_scale>
    1. 0. 1. 0. 1. 0. 1. 0.</inv_output_scale>
  <weights>
    <_>
      -5.4698197551849001e-02 -3.1310972491740746e-01
      -1.9903311480294053e-01 7.3593632867911152e-02
      4.8832541839751142e-01 -4.3133607753340680e-01
      -2.7760948649848471e-01 1.1573648966431808e-01
      -3.6182952847983246e-01 1.0596493415067340e-01
      -4.8957492250534231e-02 -5.3223198958862643e-03
      -5.7970832026293634e-02 1.4173541172469681e-01
      -5.4359217071775134e-01 -3.3471187624373550e-01
      -5.8987008539944441e-01 9.1098343754246927e-02
      4.2522046374126382e-01 5.5124984771624495e-02
      -3.2172487484073187e-01 5.3559318996776339e-01
      1.5615667780858872e-01 -1.2137777186361179e-01
      -4.3295611344471419e-01 -2.3756595526463525e-01
      1.1491864186965839e-01 6.2475146263288572e-01
      -1.7437805124134489e-01 3.6302855227409508e-01
      -2.6242359381943198e-01 -3.0390898548626444e-01
      -4.7929917421265728e-01 4.4035978675870929e-01
      1.4514963645143061e-01 -2.4453045836114870e-01
      -1.0616530861306792e-01 7.8430865034636560e-02
      1.0478676911544126e-01 1.2460413363726718e-01
      6.0454825740938867e-01 -2.7177434745585405e-01
      -2.5831430381096443e-01 -4.9694939809046490e-01
      -7.1989853774726102e-03 1.3619127993784622e-01
      -3.8506291573191187e-01 -1.4400420002294029e-01
      1.3938023627545557e-01 -1.8951702475447801e-01
      5.7225255871110367e-02 4.2174857802913740e-01
      -4.4243809533012513e-01 -1.0196017210799284e-01
      -2.7119914522862987e-01 -2.2356245104738201e-01
      -1.7046844543667836e-01 1.4364709909012624e-01
      1.9392167031162302e-01 9.8027830802504462e-02
      -2.7296892483598384e-01 -2.5559230759390794e-01
      -2.0774123808713216e-01 3.5919690275677296e-01
      5.2244483901569316e-01 -1.3425791261320391e-01
      -2.4302252950795589e-01 1.2293266523830923e-01
      1.7493573099005805e-01 2.7095584321511501e-01
      1.0259243507261320e-01 -1.5062174312672322e-01
      1.7949435036743158e-01 2.5371016515211187e-01
      3.4937529236269325e-02 -1.4793151592742612e-01
      -7.5196080142142074e-01 6.4054257149001204e-01
      4.6905510063574818e-01 -4.1857298275468113e-01
      5.0720708582846441e-01 3.2001411916210871e-02
      1.2112861254001442e-01 -2.8770460486192393e-02
      8.8895887999199355e-02 -7.2629950847895378e-02
      4.7407346615366197e-01 4.6254909366923563e-01
      6.9209388249289705e-01 3.9773187519550838e-03
      -3.1080619682618016e-01 -8.1919946598920476e-02
      2.3568736902688725e-01 -5.1469395657625661e-01
      -2.2100705217787966e-01 2.1648960550161270e-01
      6.2192111623595558e-01 1.5492325151998826e-01
      -2.9143709818651126e-01 -8.8780350696805832e-01
      1.1125387476311642e-01 -2.8726933807122135e-01
      3.9356367643267648e-01 3.6616758546410932e-01
      3.4943898508145738e-01 -7.9880745620848659e-01
      2.0507473056821654e-01 -1.8688133326698390e-02
      -1.7185613887289918e-02 -5.8151953229007659e-02
      -2.7172727598662560e-01 2.0639508623647415e-01
      -9.2353239809736343e-01 4.5809594258011940e-02
      5.7257244841572819e-01 6.6947637741813482e-01
      5.6791016449569638e-02 -2.1052546098836933e-01
      5.0379895751827208e-01 -5.0955933047411257e-02
      4.3486054165316000e-02 2.9178256958007448e-01
      -2.1457319907065819e-01 -6.3314494493464168e-01
      3.6258391719799782e-01 2.2340568187186721e-01
      5.6682930628348782e-01 2.3538446859835332e-01
      -9.2213676724617930e-02 -6.4536825201610790e-02
      -1.2756526782000024e-02 -1.1732564204872242e-01
      4.5435345306547187e-01 1.9266493660589856e-01
      3.5984469540615321e-02 -2.9398603668385220e-01
      -5.3232406367490026e-01 2.0334603796495651e-01
      3.1632314852995719e-01 1.3299841567466561e-01
      -4.1281169175900945e-01 -5.9433266879244717e-01
      -2.0364966225574219e-01 8.1676299199584620e-02
      -8.2392803438444628e-01 -5.1606459025349931e-02
      3.8470369661409892e-01 4.5365330441008228e-01
      2.8277362289074015e-01 -1.4618024500092555e-01
      -4.6260452982564626e-01 3.7637573943115921e-01
      1.9499599821143668e-01 1.6369183532622894e-01
      6.3083404643495367e-01 2.0869904902286593e-01
      3.2634569220905735e-01 2.2303771791435192e-01
      3.6272836071860226e-01 1.2968236970581917e-01
      -4.7202414038369200e-01 -2.1901697894384090e-01
      -3.2084774850092995e-01 -2.3315311035620883e-02
      5.3723208142242929e-01 1.0936909661771343e-01
      -7.4989288992467396e-01 2.0548957419075742e-02
      2.7403880037870082e-01 4.7626834561292752e-01
      5.6342013373886635e-01 1.2392699591176617e-01
      -1.0663912540172213e-01 -4.8485243779835575e-02
      -3.8131798517747430e-02 2.7455165060178183e-01
      1.7955427101632374e-01 4.4905029221612025e-01
      -6.8343045091639565e-01 2.0767477634234793e-01
      3.4243283428791196e-02 1.1111452217783020e-01
      5.2349761084386048e-01 -4.2525074831808318e-01
      4.2088784370828775e-02 3.2301265835508547e-01
      -6.8246864165983939e-02 -3.7465480364695120e-01
      2.9056308562217187e-01 6.5610799997648150e-01
      -1.2979794475484596e-03 7.4266853831894519e-01
      -5.3415307399244027e-01 5.7399768777796172e-03
      7.1503709099542467e-01 2.8782417064606047e-01
      -8.4292663812120208e-02 9.2323452435215836e-02
      -2.8749528837108895e-01 -5.7533362409509993e-02
      2.5022743748925091e-01 7.0762627629906316e-02
      -5.5574761087644386e-01 1.0379396139501412e-01
      -3.1348567179104025e-01 3.8964380050862563e-01
      5.7843883478120317e-01 -3.6143824267503105e-01
      1.5400519897162698e-01 -3.0893344796923417e-01
      -4.4998050242316229e-01 -3.9704875836674108e-01
      7.2859088455271614e-02 4.3911084196634437e-01
      3.1957370479164215e-01 2.1283229627664474e-01
      1.1626675369098280e-01 1.3382822710076223e-01
      2.5545840708517353e-01 1.4084973761403252e-01
      -4.2745219679298208e-01 7.3738408340706407e-01
      2.0617914330979137e-01 -5.0699734387183681e-01
      4.6637673878219088e-01 2.1645609203942950e-01
      -5.4990836921544821e-02 -1.1724714022156095e-01
      -5.9117582765708145e-02 -2.5325840378123049e-01
      4.6238154918054680e-01 3.7334403342151784e-01
      5.3175751778279023e-01 -5.2081242646727345e-02
      -6.0520501032047225e-01 -6.4992736202226634e-02
      2.2190387193338190e-01 -3.6517750682529387e-01
      1.0699799900849255e-01 3.0789725738734924e-01
      1.2587667950377382e-01 -8.8307196216299330e-02
      -2.5240185028783957e-01 -6.6560780369514172e-01
      2.5055331630346650e-01 -1.8598863763274801e-01
      4.4511142901266237e-01 -3.4044154514270786e-02
      3.5828550426391148e-01 -4.6397582644678370e-01
      -2.4057914704839101e-01 3.1637123507285542e-01
      -3.1077751929225633e-01 1.0565314634297139e-01
      -2.1461709448001329e-01 1.4810695784574819e-02
      -4.6553463168837722e-01 1.5276085193403810e-01
      2.7411622038464956e-01 5.8128662956860588e-01
      -2.7349085917002053e-02 -1.9418684818438633e-01
      5.0449552210498960e-01 4.0520127461370646e-02
      4.7123614427785974e-02 3.8759807093414284e-01
      -3.8639381313271665e-01 -2.9969982924714694e-01
      2.3523161047034713e-01 2.4447467493311814e-01
      4.7755010783749424e-01 9.8815124679709723e-02
      -1.9174231331037397e-01 -1.1235625552374102e-01
      -1.1597061578462785e-01 -3.0536061402222753e-01
      5.1066834170050313e-01 -1.9239565934663228e-01
      -5.0672539000110681e-03 4.0279894426726616e-03
      -4.3824827793008914e-01 2.8154975231254575e-01
      3.7753311182721166e-01 2.7174613428909616e-01
      -3.4995174839363402e-01 -2.4218016937362771e-01
      -4.9445507024414631e-01 -3.8032807387673984e-01
      1.3018371564355127e-01 9.8811841442544693e-02
      -2.0554958066118525e-02 -1.0027892986658708e-02
      -3.2179973523666716e-01 3.6119687932975286e-01
      9.0792900350987096e-02 -1.7048062288572641e-01
      -8.0269541161205812e-03 -4.4597132537270330e-02
      -5.3258505946213862e-02 -2.5318225421929814e-02
      -4.1465559526027249e-02 5.9481520617435515e-02
      1.9699969732401290e-01 1.7299935432532032e-01
      2.6435574046208893e-01 1.1647479553694788e-01
      -1.7825977928749603e-01 4.1676960971597871e-02
      -6.8544708850332509e-02 -2.0704471515549411e-01
      2.5107183932938837e-01 -8.7536893318708746e-04
      2.4116095638529017e-01 -2.3449661961586263e-01
      -2.8607476043913316e-01 -4.0432344035771500e-01
      -4.3407581093610932e-02 -2.0799839989506699e-01
      1.9075527645437407e-01 -4.4551513448009165e-02
      8.0948393238630290e-02 -3.6033170465543757e-01
      1.0805170212367718e-02 5.8514328093381793e-02
      -1.2062304008510204e-01 -1.3643670339005298e-01
      -2.2524272173512647e-01 -3.1957714408056691e-02
      -2.9292839386894853e-01 1.5629051109106454e-01
      2.9893326874335585e-01 3.4771759800368757e-01
      -9.8547890150894893e-02 -1.5725296069487607e-01
      1.6102007198880625e-01 -1.3912246369542222e-01
      2.5641175738122457e-01 3.1060108643152873e-01
      -6.1919144468360957e-02 -9.2688021338729415e-02
      3.5226419639875167e-01 1.5604104097544153e-01
      3.1132038211562640e-01 8.5611962151982759e-02
      -5.6306152558329430e-02 -1.9475589355126496e-01
      3.9963707931740193e-02 -1.6067440923086734e-01
      2.3370737246280790e-01 -1.0047519357573438e-01
      -1.1328038386831275e-01 -7.1883277196267123e-02
      -1.9972406918077876e-01 1.3590985904639100e-01
      1.9132908903723406e-01 -2.3997910322451015e-02
      -6.9147990710899276e-02 -3.8073818005557380e-01
      -1.0138835869483527e-01 -5.9753766675879998e-02
      1.8450144398019466e-01 1.4147330508808739e-01
      -5.1357896390116509e-01 -4.3772524427400789e-01
      -1.2573529158068714e-01 -3.2163034134117002e-01
      -2.6296558594874710e-02 1.8411046799430306e-01
      -1.6277454426016588e-01 -4.0129716974608237e-02
      -1.7811631843463896e-01 1.6453110786382477e-01
      1.7391989750911419e-01 4.0278754003453177e-01
      4.4525312098734275e-02 -2.5832059245850530e-01
      8.6418211666505155e-03 2.3447443078113173e-01
      7.7986033444224265e-02 2.1382614902462976e-01
      -1.7919478459137131e-01 8.8907106093404090e-02
      3.5519604568535662e-01 -2.4578775729517210e-01
      -9.1925026368579341e-02 -2.4301171510001737e-01
      -5.8861537867070296e-02 9.8502747365305551e-02
      -3.4911364238825304e-01 -2.4805922085650567e-01
      -1.1140374935829360e-02 -1.6847473049934042e-01
      -1.4468340286087311e-01 6.4765003008057124e-03
      5.2385777698521496e-01 -3.3149472038378042e-01
      -1.0738138599788927e-01 -2.6662565140499905e-01
      -4.5390722347970550e-02 5.0535749597262847e-01
      4.4262518479138827e-02 3.5339801098842910e-02
      1.1718298698515939e-01 1.4397852152040455e-01
      1.5834881035396989e-01 -5.1413461197466197e-02
      6.8384103859630022e-02 -1.4080920243826664e-01
      4.3729467137313932e-01 -2.5455951588698111e-01
      -6.8673241368836513e-02 5.9755764379697665e-02
      3.3064270280761016e-01 -1.8079789019396772e-01
      -6.2790118718816276e-02 -2.2449123707423849e-01
      -1.9554537440935232e-01 -7.6604183794311220e-02
      2.2528555308226317e-01 7.0807668917043654e-02
      -5.1422511599759815e-02 1.7869236235748870e-01
      -2.7931773605052207e-01 8.4483121694964650e-02
      -1.1158015984083076e-01 9.8086401920836799e-02
      -3.2908398567156677e-01 3.7328458093673668e-02
      -5.5580248104090769e-02 -2.1632682595827329e-01
      1.0564959854429491e-01 2.0713189161097126e-01
      3.3545966321630266e-01 3.5817432393143974e-03
      -1.9658273629419196e-01 -1.4447896703076010e-01
      -1.3922597098008335e-01 -2.2882321012576052e-02
      1.4605167884299683e-01 -3.7301271217995119e-02
      6.6046113241675350e-02 -7.8680876828013738e-03
      -2.3286422170295329e-01 2.2017796721193233e-02
      -1.9870288892867491e-01 -9.4236757481502786e-02
      -1.4908110794784668e-01 1.0939930026680804e-01
      2.9308720866165533e-01 1.4334413964921502e-01
      1.8271606378886837e-01 4.2822398775762667e-02
      -2.4780897612340314e-02 -1.5984293520528228e-01
      2.8709603626515762e-01 -6.6936420467866131e-02
      -1.4241152319197613e-02 -4.4807410204174530e-02
      -3.2529288444659360e-01 -1.1612619577394180e-01
      2.1733326565367864e-01 -2.2044052405213779e-01
      2.1520614345082817e-01 2.9066493659873394e-02
      -5.5975103206305166e-02 -4.5415493077783581e-01
      2.1954291614684615e-01 -7.2287441667745603e-02
      -3.7808171437023676e-02 -4.1368343232874340e-02
      -2.3724041655318032e-01 1.8555564016102633e-01
      -1.0825204916871005e-01 -2.7736642975567144e-01
      2.3807640836661167e-01 2.2832661097092236e-01
      -1.2484975772928193e-01 -1.2651013904361796e-01
      1.1842231300325010e-01 -1.5347990954299534e-01
      3.6076053908325412e-02 1.1351822616148356e-01
      -3.4185426150316994e-01 -1.4035210212128904e-01
      -2.9380242434944234e-02 -1.3132466670705817e-01
      2.2822268226442019e-01 6.8488560200447954e-02
      -8.1346746380354010e-02 1.6302337776384439e-02
      3.2211922925601083e-01 -1.5609075416673082e-01
      1.8579111470587797e-01 2.3900430100558374e-02
      -1.6316560619989959e-01 4.3033768288645885e-02
      -1.1801061272908051e-01 3.4482843470710944e-01
      1.3630356542902128e-01 2.5392036763579068e-01
      -2.8491504506794968e-02 -1.0410113537962941e-01
      3.5468265758233100e-02 -1.5180899604738640e-01
      -3.8331702033666759e-02 4.7942631923831962e-02
      9.3184328871781005e-02 -6.6476169171185970e-02
      -2.7231095741937877e-01 7.8303655804338027e-02
      2.0769383364445757e-01 -1.2009923284385927e-01
      1.2716972052143721e-01 -6.8185837923126671e-02
      -2.3406955299929654e-02 -4.6077522078819988e-02
      8.6463079154915232e-02 9.3765860059527500e-02
      -4.6269865172777001e-02 1.6877624772781316e-01
      2.3173312747305325e-01 -5.3240777779713901e-02
      6.4251978630005646e-02 3.1094038801816712e-03
      1.4808767291660443e-01 -9.9881165467155211e-02
      3.7401559698962516e-03 8.7234299586853234e-02
      1.9270857938091002e-01 2.3331594426846167e-01
      2.8699410796174937e-02 -4.7057476765276260e-02
      3.7366610283949338e-02 -5.7753149021143563e-02
      1.2673035717710457e-01 1.1538601193515613e-01
      3.3610616722263217e-02 -2.5525626656135991e-01
      9.0946978654550870e-02 1.2972728810898135e-01
      -9.8607438753876703e-02 -2.1719425311860663e-02
      -1.4099739833163147e-01 7.2722201486422111e-02
      -2.3311419483644463e-01 -1.1031366574969853e-01
      2.1879562263084049e-01 9.2317683620414204e-02
      8.0476356366720028e-02 -1.3957677489498282e-02
      2.0344802919943650e-01 -1.0099948800283971e-01
      -1.5450058119058041e-01 3.2902493942487392e-02
      -1.0094450090856204e-01 -2.3512038589494744e-01
      1.0241094214783047e-01 1.5688520864866992e-01
      2.0001600359368280e-01 -1.8587890799625258e-02
      9.5507600712626720e-02 1.0493764260794596e-01
      -2.0322928616729949e-02 1.5732355187428444e-02
      1.5922198469811980e-01 -2.7899711346101141e-02
      -8.4317208301278979e-02 -1.6654738679567888e-01
      -1.1599724269171628e-01 8.9037228703254659e-02
      5.4303759789367349e-02 -8.6751524284103924e-03
      5.2202503903557566e-02 -9.0581634931419575e-02
      5.0033628923832889e-02 1.0897885627284520e-01
      -3.7400800382520145e-02 -2.7019621202968097e-01
      -6.2234875032458246e-02 -3.6375615154607334e-02
      3.4641868120438563e-01 -4.3682559382306263e-01
      -7.2866298385727168e-02 3.2347476237131301e-01
      -2.1072305730685734e-01 -8.5411015433196676e-03
      -3.0222731124725927e-04 -1.3658620057456550e-01
      -2.2079401326799800e-01 6.9904235141852844e-02
      -3.4324756089707331e-01 -4.2005053769434958e-01
      -2.5198846724058066e-01 9.0821427871989907e-02
      3.5933021788557812e-01 -1.0624723297469699e-02
      -2.4289652406283221e-01 3.3354176669783003e-01
      2.5133724861270373e-01 -7.0653132854801431e-02
      -3.3312928948517995e-01 -2.5431240610685196e-01
      7.5436858276392224e-03 4.8202439346305853e-01
      -1.2681794713983183e-01 2.0642921596731967e-01
      -3.7272116414230905e-01 -2.5466228867153079e-01
      -4.3182807879420970e-01 2.6230622209479598e-01
      1.1574935956447087e-01 -1.1136117422483804e-01
      -1.4708213214246792e-02 2.0280308800332764e-03
      1.6868415738279774e-01 -6.2773155403740193e-03
      4.1109410928443663e-01 -1.9586731384364761e-01
      -2.1055675719225939e-01 -4.0146466477798171e-01
      -6.8200960661182294e-02 9.8096094735732151e-02
      -2.8242479381049518e-01 -2.7302348243905217e-01
      4.5743260818414858e-02 -2.3047456848724757e-01
      1.5350200826898679e-02 3.0032007318893528e-01
      -4.5438312771690859e-01 -2.0535053958437671e-01
      -4.2567904078565222e-01 -1.7004662188012024e-01
      1.6612355444536980e-01 7.9300024610450062e-02
      1.5013192057771081e-02 1.0354736270424982e-01
      1.8714106553925587e-02 -2.0910521695673985e-02
      -1.9011632529377015e-01 2.5744927756443275e-01
      3.1018910590555893e-01 -2.5747638817587612e-02
      -2.5882297909890734e-01 -6.2426052252620955e-03
      2.9057067191860503e-01 3.0051433767179214e-01
      2.8655967869086518e-01 -2.3844393055432147e-02
      1.5467056040958632e-01 -1.5295868200911544e-01
      -1.0938508076986420e-01 -2.7690724974282305e-01
      3.6040065345317912e-01 -6.5821017158917439e-01
      -1.7228589428553873e-01 3.4549747626099803e-01
      -3.7391616579946085e-01 5.0220361315886315e-02
      -2.1813043389222639e-01 2.0034162596491531e-02
      -5.9351122016243147e-03 1.7749323837544750e-01
      -4.2514599024648325e-01 -3.9435640589136101e-01
      -4.2657304044039446e-01 3.2785258200105812e-02
      4.9836262083601773e-01 2.3063191949147122e-02
      -2.3865519245264163e-01 3.0194469418295350e-01
      1.5477637536730404e-01 -7.3024926893188971e-02
      -6.3854739194897259e-01 -3.9079348923596552e-01
      1.2697069326641033e-01 5.3494866783185835e-01
      -1.0723008173682463e-01 3.0016042098711643e-01
      -5.3142648972056428e-01 -4.0748264698867487e-01
      -4.9597489480590612e-01 4.6288850108600604e-01
      1.4016807115959731e-01 -1.7922697646823194e-01
      -3.5504494065458740e-02 1.0515017769589058e-01
      3.0426140557458453e-01 2.1964966948217945e-01
      8.0833847315847440e-01 -2.7281421364187758e-01
      -2.9839274349681932e-01 -3.4242466519736736e-01
      -1.2376124891264485e-01 1.1831206653886181e-01
      -6.5001049313664838e-01 -2.6971509265721288e-01
      4.3718497807548579e-02 -2.3685957704769045e-01
      -2.7254801416342143e-02 2.5599663294259456e-01
      -3.5281149304538351e-01 -2.2326977128757980e-01
      -5.5370814712440386e-01 -2.5600811729333683e-01
      -9.4620336096065794e-02 1.2845056485663430e-02
      2.2458577515671313e-01 1.3267789023389240e-01
      -3.0563284954309966e-01 -1.6691526225345182e-02
      -2.6978010123306012e-01 3.1962202957346031e-01
      5.6790267205738953e-01 -5.7406545786228697e-03
      -2.1313914868185213e-01 1.1479161496907681e-01
      1.9020583791263293e-01 1.9950880169299320e-01
      2.4926703257055280e-01 1.5082685187543929e-01
      -6.2048102010995665e-01 -2.3168944295284849e-01
      2.3350471528755862e-01 4.8297139787381538e-01
      3.6692004143839785e-01 -2.9158203501043545e-01
      -3.2750298442443188e-01 3.7327051240523385e-01
      1.6110884387935532e-03 -2.1355000593303194e-02
      4.9329129477634687e-01 2.2269050350711919e-01
      3.3750667602311846e-01 -6.6339966957359017e-03
      1.5508990636564168e-01 2.2733674580032868e-02
      -5.6039594681901295e-01 -3.0195009341523305e-01
      -3.0487767422048373e-01 2.3589711918995226e-01
      4.7198769716499439e-01 2.0748944339213543e-01
      -6.1475172665713274e-01 1.5805679232484524e-01
      1.7321625458211548e-01 3.6133789185058945e-01
      7.0531896581094067e-01 2.0382252793466937e-01
      -2.5724772098251292e-01 2.4221713689660659e-01
      -2.6235830873721983e-01 2.5431967157251900e-01
      6.0140650911933179e-02 6.3715203549236077e-01
      -7.8226984993083171e-01 1.4446940051607765e-01
      2.5754764425114063e-01 1.0069992128457185e-01
      6.3775663821731343e-01 -4.9701324155521376e-01
      7.2145979966689228e-02 2.1265959230476905e-01
      -3.5410113646791974e-01 -3.0109420396468134e-01
      1.2502264592708490e-01 6.6987212536463037e-01
      -1.4497364599788998e-01 4.4635285864803675e-01
      -3.0024539985268556e-01 -4.8480021401558167e-02
      5.1010993314318431e-01 4.7843765866987176e-01
      -1.3177751704899349e-01 6.3589435024393029e-02
      -4.2232266257690937e-01 -7.4326879526580070e-02
      3.3078169582488687e-01 8.1630567079769720e-02
      -3.6307314235246191e-01 5.1130999835860072e-03
      -4.9208148075919655e-01 3.7597570046685702e-01
      5.6282732809479852e-01 -1.5072839069390184e-01
      4.1529405789132745e-01 -6.2060055591107555e-01
      -3.2770160479480193e-01 -3.3630732705836691e-01
      8.8867226612110883e-02 5.3273433998923514e-01
      2.4655690752878995e-01 1.6970780932038693e-01
      1.4383642027535337e-01 1.8610610622816652e-02
      -2.4678381258717721e-01 -2.2724562562303441e-01
      -3.4955033378306521e-01 2.3877139991529461e-01
      3.2510200232738834e-01 -1.9880608669084764e-02
      2.2820553556533271e-01 -8.7182185876988366e-02
      2.3569206820250509e-02 -3.8113304702917364e-02
      6.0185884523148020e-02 1.4311928271155345e-02
      1.6655852546550720e-01 3.9638078195696209e-02
      1.6845981575541166e-01 -5.4887929334709193e-02
      -2.7138637884046222e-02 -4.8155114864183890e-02
      1.0828974287787577e-01 -1.9144188137903240e-01
      1.3207856670336465e-01 -1.1553157421805296e-01
      3.2113838392666583e-01 1.0460284493284364e-01
      -2.7949312535652346e-02 -1.3418322888283260e-01
      1.2531263650898630e-01 -4.0705551645583170e-02
      2.4801545116101609e-01 4.9035071545022978e-02
      -4.2764374666785211e-02 -2.1701581060353664e-01
      1.1700431850346375e-01 3.4577414653300831e-02
      1.7344374804283896e-02 3.0255802215941242e-02
      -2.7532565977497392e-01 2.7649130737663324e-01
      -3.7801823019731129e-01 -1.6256132178484428e-01
      3.2949323014787862e-01 1.0508181686870634e-01
      -2.9930101261635807e-02 -4.5810225922402817e-02
      2.1818754286415906e-01 -7.9768615393871478e-02
      -1.5426678029994409e-02 -3.2374504158326038e-02
      -1.9633023308658826e-01 -1.4292832435832359e-01
      2.1212724843321601e-01 1.4979978116219494e-01
      1.9856062196783894e-01 7.9869482678667350e-02
      6.4958864956226700e-02 -1.2565444331346196e-01
      1.9807252839718134e-01 -4.2247339559865524e-02
      1.3891807532526351e-01 6.6283897721148330e-02
      4.5928325181765803e-02 5.7371758829345885e-02
      -1.7247938937650661e-01 1.9406084151126929e-01
      1.1035804524960417e-01 1.6851458023972080e-01
      1.5547979807404484e-02 -1.3024359213653300e-01
      -1.3552688800263189e-02 7.6003021922086383e-02
      2.5125332667547441e-02 -2.2397656842856389e-01
      1.0394702386087834e-01 -2.9585796929051129e-02
      3.0266322966457715e-01 -6.9909165575495924e-02
      -6.7802196930044023e-02 2.7256400656027746e-02
      -7.8582037451585734e-02 1.8364524775257698e-01
      -3.1453926400534965e-01 -1.2358488318627611e-01
      -2.4349841707133624e-01 -2.1264001895155185e-01
      -1.3552023880091155e-01 -1.8120083233050338e-01
      -2.4090517934627842e-01 -8.0917753618413607e-02
      -1.0102466016445326e-01 5.2566257731727822e-02
      -1.4418384246955622e-02 1.5410388846084125e-01
      3.2554482005014512e-01 4.1049221000357006e-03
      -3.4812840052238642e-01 -2.2569075155827334e-01
      5.6796168640294277e-02 3.8540416107594670e-02
      -1.3804110196192515e-01 1.3659381571614110e-01
      -1.9547895729041048e-01 -2.8870561559027252e-01
      -1.5841676862904411e-01 1.7848338315670573e-01
      3.8933459561202456e-02 -6.0049086979215668e-02
      -1.9610145549486793e-01 9.7719867978651342e-02
      -9.7212261214384893e-02 -1.4902876201341642e-01
      3.9178598844242446e-01 1.6201394998672167e-03
      -3.2597390941777799e-01 -1.1262247352234188e-01
      -9.6528689892218855e-02 -9.2992681055937235e-02
      -1.8046950071134060e-01 -2.5994641594819366e-02
      8.4010760112659802e-02 1.7576437751075102e-01
      -9.3045185922787904e-02 1.9455980337389092e-01
      -2.5080122919691618e-02 -1.3982273297639178e-01
      -1.6929085729618812e-01 -1.0692491583936585e-01
      -1.1251473186835531e-01 6.7665339513544337e-02
      1.2388041911612833e-02 -2.8194015753715385e-02
      -2.6571361998409049e-01 -1.7897026045596973e-01
      -2.2445883421569907e-01 7.3451776201863744e-02
      1.8109598186952458e-01 1.6830187849168270e-02
      -1.0970886325084506e-01 -8.3585561924227909e-03
      4.8625575838455469e-02 2.1268471211400986e-01
      -6.0449495339954737e-02 -1.6468612473499206e-01
      4.4483235908049250e-02 1.5112639842310013e-01
      -7.1474120497558996e-02 -9.0641661224159675e-02
      -2.3490446694109013e-01 -8.6123191831352794e-02
      2.2193746655755495e-01 -1.2535712219147382e-01
      1.2761856784376599e-01 -4.2108074848840833e-02
      1.4159132729339226e-02 2.9415107116960191e-02
      -1.1671337985069499e-01 5.9252655422896441e-02
      7.5238811134455434e-04 2.4185671636109636e-02
      2.9923344572243088e-01 -9.8049553036768045e-02
      -6.6966387595095650e-03 -2.2525588028526913e-01
      -1.3311277902971930e-02 -2.0675401418316777e-01
      8.9779994825810769e-02 -1.0161451031916366e-01
      2.0844181914866444e-01 -2.5609296266141467e-02
      -2.0950176469604057e-01 -7.6471246955309380e-02
      -1.4740512714094650e-02 4.3905730426195451e-02
      1.0696325101435664e-01 1.4757068877736526e-01
      -1.1090828040593996e-01 -1.4969090869018162e-01
      2.3222931126630153e-01 -1.0524158069018082e-01
      5.2051904621487198e-02 -1.9683170216295676e-01
      -1.1429482038957212e-01 1.3597051838195806e-01
      -2.0914444011390011e-02 -1.2356730829910663e-02
      2.1022623957278549e-01 1.1079894633492668e-01
      3.2361592389761225e-02 -2.0217311082092609e-01
      5.2000996463617138e-02 -2.2528404782906539e-01
      9.5530298553516302e-02 7.2071205192549948e-02
      -1.0933847273677795e-01 -1.8439776243246017e-01
      -2.2209708566987896e-02 -7.6136514108387218e-02
      8.4469931845521498e-02 -5.9331074925327867e-02
      -7.0754322660952967e-02 -1.0166024107151279e-01
      1.2474887324515380e-01 -1.2421880209636114e-01
      2.2854475147252323e-01 -2.7741087556788981e-02
      1.3519130212906415e-02 9.5087378466977415e-02
      -2.1090977449115134e-01 1.9640096924143946e-01
      1.9954284459240654e-01 8.9863160195921138e-02
      -6.8878905230835660e-02 -5.0826466010266545e-02
      -1.8154006926684747e-02 -5.1288065122371225e-02
      1.9719952302307719e-01 1.9582818270050820e-01
      -2.3249005286420316e-01 -3.0332658361961701e-01
      -9.1049535299764409e-02 7.5230484876421654e-03
      1.3192184128684026e-01 -2.8661079618630139e-02
      4.8995292814272694e-02 -1.0672129811118489e-01
      -7.5817736455935827e-02 7.7196801266374543e-02
      8.7348461053036217e-02 2.8776220940715808e-01
      1.3969780645128038e-01 1.6681200050507588e-03
      1.0309536027381755e-01 2.6637539202346055e-02
      2.1785296223060680e-03 2.4739989200234924e-01
      6.4334177620538821e-02 -4.7950167147336159e-02
      1.9271813794371398e-01 -8.5234880254095743e-02
      2.3259029305682458e-01 -2.1347375128398074e-01
      -4.8797420510702814e-02 -1.2808417521723622e-01
      -2.9918596003522285e-01 -2.2903624518451732e-01
      2.7937297871520897e-02 6.3980948072648244e-02
      -1.4806581444940729e-02 -4.6388576515594325e-02
      2.9071676617652342e-01 -1.3351012478916763e-01
      -8.8347841870863295e-02 -2.2762113053297819e-01
      -1.7139851063327272e-01 3.2632009968833864e-01
      -1.8413838352199891e-01 9.3203112522903780e-02
      1.6100899991519083e-01 1.2151926189138226e-01
      2.2831652401387381e-01 -1.2676864349187371e-02
      1.9058165379491118e-01 -1.5598935266060696e-01
      2.6829784765382619e-01 -2.6811420988122964e-01
      -1.9766745826972399e-02 5.0176875707125888e-02
      3.2415596569657756e-01 -8.9465461054991549e-02
      1.1664296784037070e-01 -2.1549976918723132e-01
      -1.2462780769311194e-01 -1.0185714299696910e-01
      2.6807999556714490e-01 5.6765549804986624e-02
      -7.9260524018562751e-05 4.1981182452353816e-01
      -1.9935749700239716e-01 -8.8283512223347294e-02
      -9.7819461912883141e-02 2.8427014380451896e-02
      -2.1415211744567184e-01 -1.1726094457511471e-01
      2.2161810235437757e-02 -2.5705441465459888e-01
      -1.6013889774603732e-02 2.6882776772814315e-01</_>
    <_>
      -1.3222191918596449e+00 5.0169456944057134e-01
      8.5620667650490023e-01 5.9819114552601960e-01
      9.5644477175628115e-02 -2.4777873677202109e-01
      7.4114894323285763e-01 -1.7295693786885386e-01
      4.3791408431001450e-01 6.6195011679947247e-01
      -6.4494066687467244e-01 -1.2589071052997749e+00
      8.0267624118620462e-01 6.7171476379090922e-01
      -7.3188461378997705e-01 -1.0753363667761673e+00
      5.0238547993493432e-01 7.2193593288719837e-01
      -1.2341431179247195e+00 6.3479966215378558e-01
      -4.2747038141158225e-02 7.9225590864404261e-01
      1.1235734324412110e+00 -1.3729619016610075e+00
      -7.4086313188822561e-01 -7.0180073167032975e-01
      6.5160763314151582e-01 -2.6539889681670392e-01
      5.7683585514279845e-01 -8.1570869994785344e-01
      -8.4692674182602601e-01 7.0020183085307952e-01
      2.3530751486401127e-01 -7.4439716534938039e-01
      6.0498454469943719e-01 -8.9939239737982324e-01
      1.1095859185755044e-01 6.0147883941881963e-01
      -9.8280770909786236e-02 -3.1491201221229803e-01
      1.1661406038838569e+00 -8.7626679404482877e-01
      -3.7929770010287917e-01 -5.7269450882311157e-01
      5.1530644731687203e-01 2.9060710333886697e-01
      3.2831386823548458e-01 4.8509125892858906e-01
      9.4119182855672845e-01 -4.0553999112940070e-01
      3.2966257835014712e-01 6.2425384802201792e-02
      5.7084876598876400e-01 -7.6813391743597947e-01
      3.6694950278351401e-01 9.9123986979011147e-01
      1.0683246607795571e+00 7.8549696416025860e-01
      1.3045917472398394e+00 -7.6599574404072679e-01
      6.2347670387724674e-01 -3.6817613319232484e-01
      7.4475460962570095e-01 -1.0001709380553401e+00
      -8.4613046816299964e-01 -5.7160080284793791e-01
      1.1929934449430688e+00 -1.0110099844031468e+00
      -4.5041787626392965e-01 2.6275066950895370e-01
      1.8402080355502684e-01 3.9377491743223836e-01
      -1.0102768360724987e+00 -8.6420757156301986e-01
      -8.6163154649296503e-01 1.0705168903424358e+00
      5.4768049583003853e-01 1.4591075209085611e-01
      4.2497226496846713e-01 6.7365121371875492e-01
      1.0882805654195604e+00 -3.2114728790270464e-01
      2.4379177240260277e-01 -6.9279622776652949e-01
      3.1369828205667116e-01 3.4037086416152657e-01
      -9.0370377350425335e-01 8.1330078977097719e-01
      -1.1985651432239648e+00 9.7237370162282200e-01
      6.9579213504419679e-01 1.0967697076099250e+00
      2.4146740917113074e-01 8.0835338211698649e-01
      1.5914089990535465e-01 -6.5736112360207877e-01
      1.0477212563182354e+00 -1.0917994792782617e+00
      1.1681788762303418e+00 -6.2830657753038222e-01
      5.4582503602509980e-01 -1.0474125334776827e+00
      -5.9550727356791489e-01 -1.0874063328861761e+00
      1.3384300316399953e+00 -1.9702315676880974e-01
      -6.9244648362304939e-01 -2.9858487753256543e-02
      -1.2529308503321696e-01 1.1984481803701230e-01
      -1.5257954813178558e+00 1.0807837408125827e+00
      -1.0160401494295241e+00 -6.5814144213021175e-01
      -5.1584634885626202e-01 -9.6554246803304156e-01
      -2.6505093022102488e-01 2.8896969125661509e-01
      -1.0547539838114326e+00 1.1910346204934762e-01
      -1.3510652753143571e-01 5.7576838893022286e-02
      9.0203316666391398e-01 -8.3547266856104108e-01
      6.2443329732532060e-01 -7.8753826975973451e-01
      3.6890911829140050e-01 -5.3796894818844099e-01
      4.6116508217424490e-01 2.5607344434775653e-01
      6.4085450128749177e-01 -1.1088221521492865e+00
      1.0713923859566619e+00 1.0822063448029327e+00
      -1.0279335942987684e+00 1.0753826553067234e+00
      -1.2743752670720168e+00 -9.3233848802279717e-01
      7.1521524772226874e-01 1.1976576720269152e+00
      4.6951014674586611e-01 8.7569194273803264e-01
      7.4235344863914449e-02 -8.9512164121009108e-01
      -8.9967633105430600e-02 -9.9892459959280744e-01
      -5.5586369078718068e-01 -1.2790434604943784e-01
      -2.1339489172492110e-01 7.6943629866071628e-01
      -4.6867647141574081e-01 -5.2514390800058874e-01
      7.9687213444130023e-01 -2.2703189932543721e-01
      -1.1130539317281218e+00 -5.1966711559312435e-02
      -5.8995742035727006e-01 -7.8972946599312099e-01
      8.6669955313471847e-01 1.1022113703169021e+00
      -4.1414895221159503e-01 6.6323838558906167e-01
      -1.6054761465693332e+00 1.0886881787843854e+00
      9.9116104667820482e-01 7.8982355263476978e-01
      5.2729152794760636e-01 -1.6168027346015026e-01
      -1.3977368908749493e-01 -9.1185717809305844e-01
      1.0035532355293897e+00 -4.4734941358492153e-01
      -2.8795571072629661e-01 1.0424555046638856e-01
      1.3528858733665343e+00 -6.0037761070406370e-01
      8.0023845736113741e-01 -2.2806516435149454e-01
      5.2749779779041150e-01 5.2173094955234089e-01
      1.2950865165593619e+00 1.1859468057284994e-01
      -4.2414428361947798e-01 1.4611616024623730e-01
      4.7012640344561141e-01 7.3378627929524490e-03
      1.3072876985171158e+00 -7.4499564887732128e-01
      1.2822778113538251e+00 4.4805214849110436e-01
      -3.4163406902243876e-01 -7.8165064556941610e-01
      -5.5574420765042887e-01 9.7389005882349122e-01
      1.0092268316698734e+00 9.8698449542468458e-01
      -4.4119139605888757e-01 7.2216595741138390e-01
      7.1143787598968902e-02 -1.1600306816632973e+00
      1.2666139438818316e+00 -3.2113257054412392e-01
      -4.8741761587205196e-01 2.2671023696874251e-01
      9.6102320230672700e-01 1.0187316167880713e+00
      -6.0004063790707907e-01 8.2119166848117864e-01
      5.1546111329769506e-01 2.1180777728687584e-02
      1.4373999662656416e+00 -7.4854534381524035e-02
      2.7834528845274120e-01 5.9097168644096594e-02
      8.8028046963266507e-02 -9.0147422857750370e-01
      -2.2028393006721325e-01 3.9498891226139204e-01
      1.2877705616485324e+00 -7.3266554557386709e-01
      -3.5130817094598743e-01 -1.6344464010429421e-01
      -2.2047008594582460e-01 -8.5652031494479908e-01
      3.4033993935406365e-01 -9.0427809858271080e-01
      -5.4738180303006645e-01 -3.2887353958672855e-01
      2.2883718670160760e-01 1.6166294038320284e-01
      -3.3909417187140217e-01 -8.8432028846527622e-02
      -8.6284228949163944e-01 -8.7169624534849321e-01
      4.1077897395430046e-01 9.6312151039827576e-01
      1.0776673333534734e-01 -4.9015194706732559e-02
      -2.2025498462858015e-01 5.3665037756359835e-01
      -9.8763970864163098e-01 -4.9136993460834716e-01
      5.1534179490170029e-01 -7.2011443602724623e-01
      1.1926691396348175e+00 -8.9140799876208165e-01
      6.5992858084493533e-01 6.6084685006811106e-01
      1.1944907191277530e+00 -1.3799655920887527e-01
      -3.1156890291534256e-01 -1.0491706714666391e+00
      -8.1170117360471139e-01 2.4730616137827510e-01
      -5.5187948761273886e-01 3.4022044336559271e-01
      2.3481455300710696e-01 1.3152621798302705e-01
      -1.2330960789595873e+00 7.4268215755014255e-01
      -8.5705322276272311e-01 -2.5649709277625543e-01
      6.8124913751732619e-01 6.5130311867302337e-02
      -1.0503308639406539e+00 -2.2344542785481217e-01
      1.9499313067358529e-01 -9.7004097458111116e-01
      -9.3563707969966448e-01 -2.9244021174365020e-01
      -6.3179688931404951e-02 -1.9073599258222548e-01
      3.0922343208877250e-02 -3.1796645742836321e-01
      -7.1982057497085883e-01 4.1258363126507958e-01
      4.6734423468185388e-01 3.0055954733130186e-01
      -1.3510786112593083e+00 3.1439000327129075e-02
      2.3408409303989397e-01 -7.9983957853920673e-01
      -6.5000322752209028e-01 5.0021301435795884e-01
      9.6085634903081973e-01 -7.0541696948173738e-01
      3.7274240194529484e-01 6.5889598945954819e-01
      5.5758135852407376e-01 4.5281755839372151e-01
      8.9583138406175022e-01 -4.0325368484560209e-01</_></weights></opencv_ml_ann_mlp>
</opencv_storage>
